-0.368093 0.126542 0.376999 -0.0360538 0.371024 -0.184807 -0.284958 0.119456 0.0782266 0.0775022 0.211216 0.0499756 -0.381107 0.121398 -0.0760951 -0.100714 0.3084 0.0923304 0.216309 0.0854066 -0.130942 0.133239 0.209165 0.196359 0.00118029 0.0335358 -0.183371 -0.13106 -0.352468 0.1171 0.404351 -0.0417244 0.388062 -0.206774 -0.289559 0.180338 0.00226204 -0.116427 0.0366484 -0.0573259 -0.294192 0.452467 -0.18098 -0.172941 0.252898 -0.121457 0.157476 0.477942 -0.271198 -0.205619 -0.293593 0.145756 0.0934358 0.186487 0.281064 -0.0155965 0.0460683 0.144081 0.118571 -0.20175 -0.00186829 0.208021 -0.251601 0.415043 0.0659483 -0.110062 0.438365 -0.213642 -0.26182 0.0913179 0.186524 0.661414 -0.331149 -0.806925 0.0368471 0.550994 0.151692 -0.298444 0.0448497 0.230421 -0.214006 0.27276 -0.117859 0.0549376 -0.50892 -0.270458 0.339034 -0.144856 0.455533 0.127205 0.0367697 -0.33048 0.246076 0.519541 -0.25311 0.386158 -0.0034054 -0.534602 0.415289 -0.231995 -0.0753721 0.280631 -0.0990296 -0.455483 0.371634 0.153508 0.52088 -0.238758 -0.68312 0.25599 0.377071 -0.0370525 0.416667 0.335092 -0.533147 0.0956524 -0.685245 0.608645 0.238273 0.0466198 0.0373315 -0.241492 0.818962 -0.443607 0.444051 0.0251444 0.478903 -0.056469 -0.0764262 0.508298 -0.85944 0.150074 0.0521316 -0.0609957 0.267625 -0.170424 -0.560654 0.617921 -0.246139 0.243293 0.29461 0.57718 -0.261434 -0.685665 -0.061874 0.693603 0.0364802 0.0771863 -0.234608 0.671539 0.128478 0.0312562 -0.199886 -0.629603 -0.0498371 -0.591023 0.621936 0.0433463 0.0910131 0.142379 -0.308131 0.0569254 0.148367 0.131714 -0.197464 -0.0215826 0.218307 -0.249601 0.102406 0.562139 -0.35518 -0.34219 -0.0155887 0.238822 0.267228 0.185766 0.0171192 -0.108713 0.0283627 -0.0630402 -0.301621 0.460467 -0.0577388 0.0942503 0.207358 0.199996 0.139587 -0.0820579 -0.331068 -0.191619 -0.283879 0.15147 0.0885787 0.208201 0.255921 -0.0187394 0.0346397 0.138367 0.141428 -0.196607 -0.0198683 0.226879 -0.237887 0.0614808 0.449772 -0.461466 -0.123583 0.0102796 0.0339429 0.516543 0.110571 -0.408653 0.379609 0.156232 -0.0547484 -0.316135 -0.0437907 -0.118449 -0.22051 0.216115 0.29008 0.231605 -0.131186 0.102659 -0.0355675 -0.284188 0.0201856 0.117513 0.117732 -0.0382713 0.45487 -0.0172135 -0.157536 0.135899 -0.102808 0.0972928 0.174036 0.184126 0.128285 -0.414367 0.379324 0.174517 -0.0647484 -0.322135 -0.0446478 -0.225583 -0.717214 -0.15577 -0.239777 -0.406063 -0.682678 -0.16748 -0.555046 -0.0730209 -0.0428129 -0.0108344 -0.813632 -0.828318 -0.383471 -0.195187 -0.184368 0.0923738 -0.30744 -0.0482165 -0.0654622 -0.524215 -0.117716 0.224503 -0.373644 -0.111359 -0.0545741 -0.652585 0.00981059 -0.606382 -0.682041 -0.798012 -0.268192 0.0139676 0.303922 -0.750647 -0.603642 -0.435339 -0.128714 -0.222057 -0.13468 0.0885795 -0.0138107 -0.322773 -0.410765 -0.274604 0.291332 -0.495921 -0.0731314 -0.639517 -0.464952 -0.336481 0.174642 -0.615243 -0.525547 0.188676 -0.34441 0.136064 -0.341673 0.00763846 -0.225426 -0.111194 -0.516625 -0.373356 -0.0727735 -0.890522 -0.296851 -0.178986 -0.933517 -0.0989133 -0.0267514 